8.750474e-02 
1.155198e-01 
4.140004e-02 
3.974010e-03 
-2.739033e-02 
-3.743623e-02 
1.121798e-02 
3.894290e-03 
-1.031076e-02 
2.088006e-02 
-3.772372e-03 
-3.555007e-02 
-6.502317e-03 
1.030294e-02 
1.663097e-01 
-2.020366e-02 
1.918475e-01 
2.212323e-02 
1.021132e-02 
1.809975e-02 
1.517241e-01 
1.894352e-02 
1.307018e-02 
3.815632e-03 
-4.166108e-02 
7.376445e-03 
-2.845854e-02 
-7.237625e-03 
-4.138099e-02 
-4.575565e-03 
-3.040857e-03 
2.000696e-01 
-3.723486e-02 
-1.785349e-01 
3.608325e-02 
8.238762e-02 
2.399416e-02 
5.419650e-02 
-1.314492e-02 
-2.276050e-02 
8.414570e-03 
-2.280636e-03 
-1.024475e-03 
2.428069e-02 
-1.627933e-03 
-2.455046e-02 
-4.456232e-03 
1.207275e-02 
1.429590e-01 
1.017350e-02 
1.342480e-01 
4.266789e-02 
1.757463e-02 
2.050370e-02 
9.987699e-02 
2.846416e-02 
2.131688e-02 
2.671319e-03 
-1.521601e-02 
4.681968e-03 
-1.968606e-02 
2.882234e-03 
-2.522148e-02 
-4.975856e-03 
-4.263139e-03 
1.644470e-01 
-2.011860e-02 
-1.757204e-02 
3.809750e-02 
7.041422e-02 
2.918017e-02 
5.232047e-02 
-5.728727e-03 
-1.353020e-02 
1.725610e-03 
8.854541e-04 
8.099764e-03 
1.786202e-02 
3.836277e-03 
-1.114112e-02 
4.771981e-03 
9.811950e-03 
1.281669e-01 
1.862470e-02 
1.321265e-01 
3.172225e-02 
1.758555e-02 
2.150359e-02 
8.413071e-02 
1.577110e-02 
2.897022e-03 
4.220772e-03 
-1.614068e-02 
5.134781e-04 
-1.053880e-02 
3.486392e-03 
-5.200568e-03 
6.127746e-03 
-1.856454e-03 
1.464281e-01 
-1.166444e-02 
1.164751e-01 
5.675307e-02 
9.539619e-02 
2.889417e-02 
2.961915e-02 
-2.524338e-02 
-3.208105e-02 
1.139424e-02 
5.800088e-04 
-5.495915e-03 
1.915499e-02 
3.073545e-03 
-2.559609e-02 
4.568369e-03 
6.583571e-03 
1.447702e-01 
-3.175465e-03 
1.575866e-01 
2.859441e-02 
1.714374e-02 
1.851171e-02 
1.205826e-01 
2.542322e-02 
6.544522e-03 
8.040705e-03 
-2.938781e-02 
-5.007653e-04 
-2.501270e-02 
-3.438237e-03 
-2.994248e-02 
-2.902051e-04 
-5.799093e-03 
1.624003e-01 
-3.325658e-02 
-2.014572e-01 
1.665198e-02 
6.016384e-02 
-4.635918e-04 
3.233081e-02 
-3.706258e-02 
-4.387307e-02 
9.608042e-04 
2.871958e-03 
-1.901987e-02 
1.574406e-02 
6.358159e-03 
-3.601910e-02 
2.800271e-03 
1.317537e-02 
1.482795e-01 
-1.737474e-03 
1.087244e-01 
4.532950e-02 
9.147088e-03 
2.355055e-02 
9.168698e-02 
1.801209e-02 
7.686850e-03 
-2.400325e-04 
-4.667596e-02 
7.758643e-03 
-2.475451e-02 
1.514724e-03 
-4.687359e-02 
2.606765e-03 
6.262612e-03 
1.401141e-01 
-4.756584e-02 
8.651016e-02 
1.069392e-01 
1.539973e-01 
1.976961e-02 
-2.133610e-02 
-6.675716e-02 
-7.140477e-02 
-1.517296e-03 
-5.249154e-03 
-3.964604e-02 
1.065736e-02 
1.898087e-03 
-6.687718e-02 
-6.518402e-03 
6.864343e-03 
2.311001e-01 
-4.898708e-02 
2.294012e-01 
2.578866e-02 
-6.891689e-03 
9.762795e-03 
1.881076e-01 
6.736784e-03 
9.964782e-03 
6.789997e-03 
-7.786735e-02 
2.056266e-03 
-5.495194e-02 
-1.885678e-03 
-7.569353e-02 
3.139219e-03 
2.915448e-03 
2.456016e-01 
-6.883170e-02 
-4.093785e-01 
5.838614e-02 
9.636205e-02 
2.076164e-02 
1.192073e-02 
-3.067537e-02 
-3.847957e-02 
2.895031e-03 
-2.834428e-03 
-1.174157e-02 
2.898451e-02 
2.965846e-03 
-3.852817e-02 
1.138636e-03 
1.453369e-02 
1.482196e-01 
-1.733933e-02 
1.629610e-01 
3.001403e-02 
1.696289e-02 
2.661984e-02 
1.186423e-01 
3.183360e-02 
1.970857e-02 
9.535778e-03 
-3.624014e-02 
3.844906e-03 
-2.546522e-02 
2.037316e-03 
-3.839232e-02 
-1.530587e-03 
4.838360e-03 
1.776554e-01 
-3.621956e-02 
-2.100571e-01 
3.909484e-02 
6.977999e-02 
2.413368e-02 
5.295946e-02 
-7.314211e-03 
-1.210315e-02 
1.900265e-04 
-3.117074e-03 
4.510478e-03 
1.939530e-02 
-2.695000e-03 
-6.819323e-03 
9.869479e-04 
4.790570e-03 
1.257828e-01 
2.625828e-02 
1.264865e-01 
3.204332e-02 
1.085154e-02 
1.383439e-02 
8.711529e-02 
1.398433e-02 
1.120675e-02 
4.108400e-03 
-5.024599e-03 
-1.402009e-04 
-2.598490e-03 
2.502547e-03 
-8.757973e-03 
-1.376827e-03 
3.783986e-03 
1.522306e-01 
-1.190023e-02 
1.080960e-01 
1.394040e-02 
5.962494e-02 
3.802284e-03 
5.543877e-02 
-1.718000e-02 
-2.555321e-02 
7.977218e-03 
2.457659e-03 
9.354569e-04 
1.931656e-02 
2.266580e-04 
-2.252850e-02 
3.019582e-03 
6.379274e-03 
1.334266e-01 
8.170112e-03 
1.121220e-01 
3.972806e-02 
1.246686e-02 
2.763819e-02 
9.171284e-02 
1.870668e-02 
1.793051e-02 
1.038766e-02 
-2.640612e-02 
6.386036e-03 
-1.916575e-02 
-4.658630e-03 
-2.475427e-02 
8.472355e-04 
-4.134741e-04 
1.458729e-01 
-2.949365e-02 
3.854462e-01 
6.468678e-02 
8.644904e-02 
4.419799e-02 
5.063552e-02 
2.663751e-03 
-7.740696e-03 
4.779214e-03 
-5.441708e-03 
8.149571e-03 
2.619510e-02 
1.799457e-03 
-4.403029e-03 
-2.466853e-03 
9.145991e-03 
1.311993e-01 
1.598956e-02 
1.526017e-01 
3.867778e-02 
1.762804e-02 
2.653573e-02 
1.020833e-01 
2.081911e-02 
1.734631e-02 
5.758452e-03 
-2.726096e-03 
1.772792e-03 
-5.124493e-03 
-4.662240e-03 
-1.821427e-03 
2.356570e-03 
4.658025e-03 
1.698632e-01 
-1.033579e-02 
-8.657256e-02 
-5.988553e-02 
-5.261381e-02 
-7.668542e-02 
-4.136403e-02 
-8.276004e-02 
-1.472636e-01 
-6.390613e-02 
-7.825320e-02 
-5.379046e-02 
-5.143647e-02 
1.710034e-01 
-2.111476e-01 
-1.960935e-01 
-1.891090e-01 
-2.182781e-01 
-1.807111e-01 
-2.803989e-01 
-1.875602e-01 
-1.788697e-01 
-2.059569e-01 
-2.011251e-01 
1.614467e-01 
-2.402038e-01 
-2.165836e-01 
-1.712964e-01 
-1.966667e-01 
-2.335374e-01 
-3.386685e-01 
-2.653115e-01 
-1.560495e-01 
-2.180694e-01 
-1.701652e-01 
2.932558e-01 
-2.284617e-01 
-2.218836e-01 
-1.713313e-01 
-2.309674e-01 
-2.052247e-01 
-2.966804e-01 
-2.001101e-01 
-1.881421e-01 
-2.315809e-01 
-2.234082e-01 
-4.653386e-01 
-9.390821e-02 
-1.471687e-01 
-1.613101e-01 
-8.110398e-02 
-7.908804e-02 
-1.857283e-02 
-1.141524e-01 
-1.493999e-01 
-1.247819e-01 
-1.655408e-01 
-2.289747e-01 
-2.014309e-01 
-2.135138e-01 
-1.834956e-01 
-2.221625e-01 
-1.860252e-01 
-2.667500e-01 
-2.211326e-01 
-2.054798e-01 
-2.181297e-01 
-2.097520e-01 
-5.668545e-01 
