-0.004346 
-0.000229 
-0.005596 
0.000466 
-0.003180 
-0.002256 
-0.001801 
0.002104 
-0.000886 
0.001360 
0.002031 
0.001519 
-0.001623 
-0.005492 
0.003132 
0.004778 
0.004027 
-0.003620 
0.002261 
-0.001647 
-0.001309 
-0.003467 
0.002214 
-0.002296 
0.004850 
0.002607 
-0.000490 
-0.001278 
0.001082 
0.002875 
0.002888 
0.005007 
0.000824 
0.072067 
0.001898 
-0.005217 
0.002194 
0.005928 
0.000501 
0.005537 
-0.003380 
0.000895 
0.001396 
0.002254 
-0.002677 
0.002565 
0.005907 
0.000651 
-0.003215 
-0.005097 
0.002961 
-0.001095 
-0.002899 
0.002272 
0.005613 
0.003341 
-0.001116 
-0.000988 
0.002423 
-0.003085 
-0.001400 
-0.003703 
0.003808 
0.004436 
-0.001518 
-0.005948 
0.000726 
-0.267503 
0.001123 
-0.001343 
0.003948 
0.003252 
-0.001584 
0.001673 
0.003900 
0.004141 
-0.003104 
-0.005027 
-0.003049 
-0.002708 
-0.003479 
0.004721 
-0.002552 
0.000313 
0.002946 
-0.002606 
0.002846 
-0.005569 
0.000235 
0.002378 
-0.005462 
-0.003501 
0.003787 
0.002873 
-0.004742 
-0.005657 
0.000666 
-0.003515 
0.005751 
-0.003066 
-0.002644 
-0.382983 
0.000161 
0.003687 
0.002415 
0.001040 
0.003123 
-0.003526 
-0.005122 
-0.005124 
0.004164 
0.002587 
0.000831 
0.005993 
-0.002567 
0.001036 
-0.005766 
-0.005495 
-0.002828 
0.004036 
-0.000258 
0.002280 
-0.004580 
0.004927 
-0.003160 
0.003231 
0.004427 
0.004927 
-0.000538 
0.003646 
0.003800 
0.002764 
-0.005615 
0.001326 
0.004496 
-0.369624 
-0.003085 
0.003463 
-0.001791 
0.003514 
0.003250 
-0.002016 
-0.005047 
-0.002901 
0.004624 
-0.002436 
-0.005420 
-0.002411 
0.000055 
0.000381 
-0.002520 
0.003583 
-0.004670 
0.003109 
0.004486 
-0.002889 
0.005012 
0.001315 
-0.005872 
-0.003110 
0.004690 
0.004134 
-0.004261 
-0.002255 
-0.005577 
0.001369 
-0.002075 
0.005853 
0.004175 
0.241824 
0.005720 
-0.004591 
-0.000131 
0.000591 
-0.001857 
-0.001896 
-0.002299 
0.002266 
0.005174 
-0.003223 
0.003904 
0.000015 
0.001577 
0.001740 
-0.001763 
-0.002237 
-0.005449 
0.004420 
-0.002144 
0.004308 
-0.000524 
0.000538 
-0.001429 
0.004665 
-0.003256 
0.005696 
-0.002494 
0.002983 
0.004210 
0.000157 
0.001824 
0.005790 
0.001788 
-0.361687 
0.005028 
-0.001063 
-0.002608 
-0.005117 
0.005647 
0.004770 
0.004295 
-0.000815 
0.000757 
-0.002205 
-0.005594 
-0.004442 
-0.001290 
-0.001117 
0.001808 
-0.003195 
-0.002705 
-0.001003 
0.000737 
0.000557 
0.004889 
0.003058 
0.004918 
-0.002446 
0.001528 
-0.004314 
-0.001445 
0.001095 
-0.004657 
0.005549 
-0.005565 
0.001440 
0.002702 
-0.312848 
0.001836 
0.003601 
-0.002827 
-0.000310 
-0.001742 
0.000050 
-0.000310 
-0.002129 
-0.002380 
-0.002633 
-0.002813 
0.004803 
0.002174 
-0.002883 
0.001300 
-0.002809 
0.001901 
0.002930 
-0.003070 
-0.000477 
-0.002514 
0.004557 
-0.002373 
-0.003737 
-0.003093 
0.004312 
0.005129 
-0.002459 
-0.004214 
-0.003812 
-0.004402 
0.005416 
-0.002818 
-0.103524 
-0.004705 
-0.002987 
0.003200 
0.004225 
-0.003706 
0.000752 
-0.002123 
-0.005484 
0.003263 
-0.003013 
-0.002390 
-0.003166 
-0.004469 
0.001319 
0.003095 
-0.004320 
0.001531 
-0.005195 
-0.004416 
-0.004196 
0.003409 
0.004757 
0.004437 
0.002707 
-0.000692 
0.003166 
-0.003703 
0.003811 
0.002755 
-0.003615 
-0.003156 
-0.001525 
-0.004567 
-0.164004 
0.000177 
0.001057 
0.001019 
-0.001171 
-0.004940 
0.003495 
-0.000483 
-0.002291 
0.000087 
-0.004548 
0.001961 
-0.005230 
-0.005192 
0.001604 
0.004643 
-0.003698 
0.000895 
0.005538 
-0.003170 
-0.002950 
-0.005365 
0.004299 
-0.004262 
0.005518 
0.003416 
0.003144 
0.001873 
0.004742 
-0.003600 
0.001922 
0.004341 
-0.003291 
-0.004218 
-0.041282 
0.010922 
-0.028629 
0.019157 
0.026086 
-0.007801 
0.007881 
-0.026161 
-0.015186 
-0.017639 
-0.029378 
-0.397085 
-0.010633 
-0.017756 
0.017879 
-0.003358 
-0.032415 
-0.004904 
0.017007 
0.022529 
0.017224 
0.028550 
-0.329532 
0.007656 
-0.002194 
0.000587 
-0.028441 
0.014154 
0.011519 
0.025635 
0.011973 
-0.006756 
0.007464 
0.141399 
0.017910 
0.025953 
-0.030850 
-0.026069 
-0.010078 
-0.020894 
-0.016411 
-0.000818 
0.020989 
0.031998 
0.287682 
0.015153 
0.002878 
0.030934 
-0.008554 
0.010173 
0.025204 
0.006325 
-0.009316 
0.001628 
-0.001511 
-0.127640 
0.015371 
-0.028809 
-0.016759 
0.000880 
-0.021510 
-0.022122 
-0.027542 
-0.018648 
-0.025842 
0.031397 
-0.193403 
