-4.208000e-03 
-6.193000e-03 
3.482000e-03 
2.268000e-03 
4.763000e-03 
8.280000e-04 
6.041000e-03 
3.961000e-03 
-3.999175e+00 
2.648000e-03 
-4.281000e-03 
2.325000e-03 
-6.134000e-03 
1.624000e-03 
1.340000e-03 
2.042000e-03 
-9.170000e-04 
-1.030000e-04 
4.920000e-04 
-1.320000e-03 
2.072000e-03 
-1.313000e-03 
3.046000e-03 
-2.392000e-03 
-4.003357e+00 
3.104000e-03 
-2.684000e-03 
-5.010000e-03 
1.585748e+00 
-4.628000e-03 
-3.238000e-03 
8.980000e-04 
9.550000e-04 
-4.936977e+00 
7.765381e-01 
7.847741e-01 
-3.724000e-03 
4.632000e-03 
6.750000e-04 
-2.278000e-03 
2.413000e-03 
-2.259000e-03 
-6.119000e-03 
-3.600000e-05 
1.560952e+00 
-4.022000e-03 
-4.509000e-03 
-1.164000e-03 
6.135000e-03 
-1.170000e-03 
-4.275000e-03 
4.164000e-03 
9.986270e-01 
-5.208000e-03 
3.100000e-05 
1.021000e-03 
6.208000e-03 
-5.240000e-03 
5.279000e-03 
-2.825000e-03 
-6.060000e-03 
2.497000e-03 
-4.734000e-03 
-5.027000e-03 
-4.448000e-03 
6.116000e-03 
2.530000e-04 
3.053648e+00 
-2.706000e-03 
-2.896000e-03 
7.410000e-04 
-7.920000e-04 
-7.000000e-05 
-3.539000e-03 
7.786061e-01 
8.420000e-04 
2.712000e-03 
4.360000e-04 
-1.560630e+00 
-6.500000e-04 
4.286000e-03 
-7.801111e-01 
1.862000e-03 
1.998595e+00 
3.328000e-03 
-3.182000e-03 
1.878000e-03 
-7.781361e-01 
-2.701000e-03 
-2.278000e-03 
-5.326000e-03 
-1.851000e-03 
-6.177000e-03 
-2.957000e-03 
-4.216000e-03 
1.477000e-03 
4.721000e-03 
8.004716e-01 
-2.074000e-03 
-2.829000e-03 
-1.875000e-03 
6.363100e-02 
3.529000e-03 
5.512000e-03 
1.424000e-03 
5.130000e-04 
-3.241000e-03 
-3.552000e-03 
5.594000e-03 
6.100000e-04 
-2.422000e-03 
-2.341000e-03 
3.129869e+00 
2.801000e-03 
4.694000e-03 
-3.939780e-01 
-3.183000e-03 
6.114813e-01 
4.266000e-03 
-3.047000e-03 
9.910000e-04 
-4.408000e-03 
1.976000e-03 
1.648000e-03 
-5.260000e-03 
6.210000e-04 
-8.410000e-04 
-5.670000e-03 
-5.903000e-03 
7.790000e-04 
-1.393000e-03 
-3.210000e-04 
-5.918000e-03 
1.585374e+00 
-4.784000e-03 
-2.595580e-01 
-8.520000e-04 
-4.114000e-03 
9.750000e-04 
4.000305e+00 
-7.280000e-04 
-4.001514e+00 
-4.225000e-03 
2.935000e-03 
-4.426000e-03 
-1.296000e-03 
5.694000e-03 
5.879000e-03 
3.240000e-03 
3.132336e+00 
4.027000e-03 
1.269561e-01 
-5.811000e-03 
6.056000e-03 
-7.827351e-01 
3.132746e+00 
1.998209e+00 
-5.150000e-04 
-7.580000e-04 
-6.084000e-03 
-1.593090e+00 
4.473000e-03 
3.798000e-03 
2.217000e-03 
-4.467000e-03 
1.591355e+00 
6.040000e-03 
2.345000e-03 
-5.300000e-03 
3.911300e-02 
-7.830000e-04 
2.312000e-03 
-9.060000e-04 
2.598000e-03 
6.840000e-04 
1.461000e-03 
1.898810e-01 
-5.142000e-03 
9.994120e-01 
5.960000e-04 
1.949000e-03 
4.813000e-03 
-5.377000e-03 
3.220000e-03 
2.909000e-03 
3.129332e+00 
-6.033000e-03 
1.014000e-03 
3.122760e+00 
-1.043000e-03 
7.897636e-01 
-4.171000e-03 
5.997000e-03 
3.426000e-03 
3.122327e+00 
-7.804831e-01 
-5.581000e-03 
2.021000e-03 
-2.741000e-03 
1.566689e+00 
2.602000e-03 
-1.871000e-03 
3.916000e-03 
-4.903350e-01 
9.606701e-02 
-6.480000e-04 
-4.532000e-03 
-6.228000e-03 
1.590337e+00 
1.343000e-03 
9.969480e-01 
-2.734000e-03 
-4.187000e-03 
6.100000e-03 
1.973000e-03 
7.020000e-04 
1.697000e-03 
1.723000e-03 
9.974430e-01 
1.584614e+00 
4.423000e-03 
-1.602000e-03 
2.924000e-03 
1.995000e-03 
-6.158000e-03 
5.456000e-03 
5.306000e-03 
2.045000e-03 
3.643000e-03 
-3.116000e-03 
1.487000e-03 
2.056000e-03 
1.565145e+00 
-1.585000e-03 
4.640000e-03 
5.662000e-03 
3.565000e-03 
-2.693420e-01 
-3.853000e-03 
-4.998000e-03 
-5.293000e-03 
-3.810000e-04 
-2.264000e-03 
-3.098000e-03 
-4.563000e-03 
-3.174000e-03 
-1.740000e-04 
3.252000e-03 
-3.492000e-03 
2.762000e-03 
4.290000e-04 
-2.230000e-03 
-2.783000e-03 
5.590000e-03 
-4.920000e-03 
-2.424000e-03 
-4.750000e-03 
-2.574000e-03 
-1.082000e-03 
-3.680358e+00 
4.488000e-03 
-1.670000e-03 
3.945000e-03 
-1.124686e+00 
3.015000e-03 
2.000375e+00 
1.670000e-04 
-1.426000e-03 
-3.123655e+00 
5.970000e-04 
-3.081000e-03 
5.433500e-02 
-4.700000e-03 
-4.293000e-03 
-5.879000e-03 
4.465000e-03 
4.359000e-03 
1.998000e-03 
2.626000e-03 
2.483000e-03 
3.059000e-03 
-1.815000e-03 
-5.730000e-04 
4.976000e-03 
3.059000e-03 
-4.653000e-03 
-3.843000e-03 
3.450000e-04 
-4.653000e-03 
-2.392000e-03 
-2.186000e-03 
5.222000e-03 
4.475000e-03 
-5.064000e-03 
5.143000e-03 
3.424000e-03 
1.160000e-03 
1.860000e-04 
-7.650000e-04 
-3.616000e-03 
2.809000e-03 
8.050000e-04 
-7.949756e-01 
4.191000e-03 
-2.030000e-03 
3.359360e-01 
6.114000e-03 
-1.715000e-03 
2.620000e-03 
-4.640000e-04 
3.132085e+00 
-4.110000e-04 
-6.940000e-04 
-3.183101e+00 
-2.110000e-03 
4.867000e-03 
9.160000e-04 
3.426000e-03 
-2.953000e-03 
-1.424000e-03 
-4.001366e+00 
-2.653000e-03 
1.586000e-03 
5.745000e-03 
-1.512000e-03 
4.388000e-03 
-6.140000e-04 
9.977280e-01 
5.498000e-03 
-1.427000e-03 
4.580000e-03 
-3.773000e-03 
-5.750000e-04 
-5.416000e-03 
5.453000e-03 
2.309000e-03 
4.486000e-03 
2.735000e-03 
-3.170000e-03 
-1.459500e-01 
2.988300e-02 
-4.580000e-04 
-1.586874e+00 
2.127300e-02 
-1.891400e-02 
-1.052200e-02 
-2.516000e-03 
-1.583597e+00 
4.190000e-04 
1.359016e+00 
2.037430e-01 
2.297300e-02 
-1.503100e-02 
-9.226000e-03 
-1.590460e+00 
-2.262000e-03 
-3.601000e-03 
7.970000e-03 
2.563000e-03 
-5.664285e-01 
-1.371600e-02 
3.488960e-01 
3.142500e-02 
-1.121300e-02 
1.582800e-02 
2.813100e-02 
-1.589143e+00 
-9.135000e-03 
-2.565600e-02 
2.849000e-02 
-2.371400e-02 
2.612600e-02 
4.582330e-01 
1.163800e-02 
-2.468900e-02 
2.607300e-02 
-2.667800e-02 
-1.365300e-02 
-2.325900e-02 
-7.877596e-01 
-7.839836e-01 
-3.004900e-02 
-1.928200e-02 
-2.489470e-01 
-3.652000e-03 
-1.812100e-02 
-1.578600e-02 
2.376500e-02 
2.381000e-02 
1.559800e-02 
-1.581280e+00 
-3.984000e-03 
2.301200e-02 
-1.877200e-02 
3.031000e-02 
2.858600e-02 
2.596738e-01 
6.777000e-03 
-1.763567e-01 
-1.597000e-03 
-5.640000e-03 
-8.043251e-01 
-1.205732e+00 
-2.023894e+00 
-1.323100e-02 
-3.567420e-01 
