0.004754 
0.001892 
0.001624 
-0.002988 
0.000430 
-0.001446 
-0.002572 
-0.006036 
-0.000302 
0.003670 
0.005977 
-0.000466 
0.004999 
-0.001862 
0.002226 
-0.001343 
0.001508 
-0.000436 
-0.004612 
-0.006031 
-0.001340 
-0.005644 
0.005627 
0.003984 
0.002644 
0.001378 
-0.001504 
0.001467 
0.005136 
-0.000097 
0.005945 
-0.002944 
0.003786 
0.493490 
-0.000981 
0.005288 
-0.000171 
0.000689 
-0.004896 
0.005930 
-0.001759 
-0.000024 
-0.004650 
-0.000602 
-0.002418 
-0.005595 
0.004309 
-0.004500 
-0.006034 
-0.000307 
-0.000334 
-0.001224 
-0.004914 
-0.000030 
-0.006004 
-0.004816 
0.000489 
-0.004920 
0.004209 
0.002868 
-0.001507 
-0.001783 
0.000251 
0.000707 
-0.002979 
-0.004977 
-0.003521 
-0.348840 
-0.005984 
-0.001624 
-0.004436 
0.003142 
-0.002302 
0.002163 
-0.001235 
0.000152 
0.000010 
-0.000074 
-0.001050 
-0.002923 
-0.003961 
0.001394 
0.006084 
0.000680 
-0.001580 
-0.004374 
-0.003914 
-0.003753 
-0.002202 
0.000439 
0.000096 
-0.002732 
-0.000757 
0.003856 
-0.002823 
0.005640 
-0.003204 
-0.003161 
0.000699 
-0.001745 
0.005265 
-0.348775 
-0.003703 
0.001168 
-0.005189 
-0.005008 
-0.004506 
-0.000881 
-0.004705 
0.001440 
-0.000982 
-0.004084 
0.003384 
0.002960 
-0.001668 
0.000984 
0.005627 
0.004951 
0.004165 
-0.003242 
-0.003356 
0.002846 
-0.006004 
-0.005516 
-0.002801 
-0.003264 
0.003733 
-0.001343 
0.004928 
-0.005701 
-0.000620 
0.004919 
-0.004470 
0.002622 
0.002734 
-0.383441 
-0.002704 
0.002449 
-0.005520 
0.004359 
-0.005605 
-0.000513 
-0.002882 
-0.003152 
0.002609 
-0.002705 
-0.004485 
0.002807 
0.000313 
0.005705 
0.003659 
-0.005049 
0.000911 
-0.000513 
-0.000757 
0.001476 
-0.000883 
-0.005393 
0.006095 
-0.000463 
0.001243 
0.003551 
-0.005792 
0.004388 
0.003564 
-0.001804 
0.001219 
0.003415 
0.003090 
-0.258764 
-0.003018 
-0.006014 
-0.004178 
0.002032 
0.004980 
-0.005963 
-0.003153 
0.002907 
0.005161 
-0.002443 
-0.004499 
-0.003452 
0.001066 
-0.004554 
-0.006024 
-0.002147 
-0.005620 
-0.003535 
0.005921 
-0.001752 
-0.004900 
0.003899 
0.001469 
-0.001221 
-0.000290 
0.002625 
0.000686 
0.000632 
-0.004978 
0.004574 
-0.002837 
0.001709 
0.000108 
-0.497342 
-0.000621 
0.002697 
0.000514 
0.000402 
-0.001353 
0.003938 
-0.000811 
-0.005089 
0.001658 
-0.000935 
0.001809 
0.003158 
-0.005294 
0.003583 
0.003336 
0.000310 
0.001363 
0.002821 
-0.000083 
0.000034 
-0.001207 
0.004136 
-0.000150 
-0.005501 
0.004391 
0.005548 
0.005579 
0.000903 
0.001262 
0.003200 
0.002325 
-0.003813 
0.003813 
0.140453 
-0.002727 
0.001468 
-0.003463 
-0.002589 
-0.003005 
0.000789 
0.003685 
-0.002656 
0.002199 
0.002186 
-0.000638 
0.001886 
0.000469 
-0.005787 
0.004536 
0.005507 
-0.004529 
0.003758 
0.003419 
0.002058 
-0.004893 
0.000894 
0.005137 
-0.002886 
0.002472 
-0.002199 
0.005111 
-0.005190 
-0.002654 
0.001584 
-0.002172 
0.004364 
0.002151 
-0.166259 
0.005421 
0.004802 
-0.003196 
-0.005936 
-0.005233 
-0.005284 
-0.001912 
-0.005524 
-0.003335 
-0.004833 
0.000374 
0.003647 
0.004123 
-0.004518 
0.003070 
-0.005172 
-0.001123 
0.001307 
0.005129 
-0.003281 
0.004875 
0.002654 
-0.001294 
0.000719 
-0.002775 
0.004875 
-0.001421 
-0.002276 
0.002101 
0.002209 
0.005047 
-0.003931 
0.004498 
-0.393346 
-0.001378 
0.001655 
0.004806 
-0.003192 
0.005929 
0.004866 
-0.005897 
-0.001586 
0.005232 
-0.000754 
-0.001430 
0.002376 
0.000986 
-0.001057 
0.004197 
0.006146 
-0.001680 
0.004601 
0.004688 
-0.001532 
-0.001776 
0.004004 
-0.003341 
-0.003260 
0.003076 
0.004781 
-0.004449 
-0.000085 
-0.002936 
-0.002882 
-0.005572 
-0.004905 
0.003620 
-0.437824 
0.003541 
0.018436 
0.020411 
-0.019709 
0.012934 
-0.017909 
-0.018683 
0.007831 
0.008690 
0.005360 
0.345322 
-0.000144 
0.005718 
-0.013280 
0.032998 
0.025930 
0.024369 
0.014930 
-0.024299 
-0.022790 
-0.004332 
-0.204908 
-0.019658 
0.017509 
-0.026065 
0.028366 
-0.004372 
0.025475 
0.024859 
0.008078 
0.011964 
0.026729 
-0.419698 
0.009907 
-0.029039 
-0.001411 
0.002824 
-0.010067 
0.001860 
0.007112 
-0.019499 
-0.027919 
-0.016682 
-0.054497 
0.023688 
0.010823 
0.025954 
0.027107 
-0.029604 
-0.004644 
0.018729 
-0.001693 
0.030498 
0.006264 
-0.366021 
0.026234 
0.013709 
-0.033290 
-0.016367 
0.033068 
0.028082 
-0.008945 
0.007164 
-0.004418 
-0.028028 
0.339880 
