3.565253e-04 
-5.205837e-03 
5.189079e-04 
-1.248661e-03 
2.613762e-03 
2.207519e-03 
1.819539e-02 
8.152694e-03 
1.805054e-03 
4.585940e-05 
-2.612927e-04 
4.139114e-03 
-5.910891e-03 
1.252227e-03 
-1.141930e-03 
1.313601e-02 
7.865791e-04 
3.812192e-03 
-2.241599e-03 
-2.726260e-03 
3.397428e-03 
-2.691126e-03 
4.535391e-03 
-7.022326e-03 
-1.060851e-04 
-2.141590e-03 
1.757549e-03 
-1.204107e-03 
9.131207e-04 
-1.838926e-03 
-4.489227e-04 
1.133631e-02 
5.480575e-03 
-2.405908e-01 
3.752335e-02 
4.571720e-02 
2.462000e-02 
3.678152e-02 
1.277481e-02 
4.555425e-03 
2.672962e-02 
9.119088e-03 
1.253197e-02 
7.123912e-03 
3.362002e-03 
5.487067e-03 
-3.903335e-03 
3.813694e-03 
2.225743e-02 
4.021921e-02 
3.411483e-02 
3.884490e-02 
2.505259e-02 
3.543360e-03 
2.987051e-02 
9.805041e-03 
8.144504e-03 
4.553493e-03 
1.503317e-02 
6.237110e-03 
7.702427e-03 
1.392004e-02 
8.381649e-03 
-6.170563e-04 
-3.805197e-05 
5.221525e-02 
1.412409e-02 
-4.859050e-02 
2.594048e-02 
2.172359e-02 
1.619137e-02 
1.587137e-02 
4.793670e-03 
4.947132e-03 
1.883207e-02 
1.401268e-02 
9.015956e-03 
-1.431611e-03 
8.293772e-03 
1.084596e-02 
5.018596e-03 
1.720564e-03 
1.216745e-02 
3.634463e-02 
2.545653e-02 
1.751413e-02 
1.257406e-02 
2.368858e-03 
1.126842e-02 
-3.574565e-03 
-4.776600e-03 
-4.998072e-03 
5.313775e-03 
-6.087892e-03 
1.191409e-02 
1.457191e-02 
2.006750e-02 
1.078310e-02 
2.643107e-03 
3.791637e-02 
1.440701e-02 
8.199361e-02 
3.321709e-02 
3.381310e-02 
2.115978e-02 
2.532714e-02 
4.464490e-03 
3.433718e-03 
2.219304e-02 
1.224550e-02 
5.003863e-03 
1.064894e-03 
5.268864e-03 
1.196533e-02 
5.453308e-03 
-4.715374e-04 
1.126889e-02 
3.847056e-02 
3.196651e-02 
2.302630e-02 
1.828224e-02 
1.330796e-04 
2.522494e-02 
6.218229e-03 
-3.955368e-03 
5.028223e-03 
9.113360e-03 
-1.796704e-03 
7.884625e-03 
1.177753e-02 
1.162781e-02 
1.171595e-03 
-4.425403e-03 
3.584829e-02 
9.154069e-03 
-2.411274e-01 
3.591195e-02 
3.113210e-02 
2.200184e-02 
2.075834e-02 
1.298181e-03 
-1.400077e-03 
2.328763e-02 
6.310030e-03 
5.614617e-03 
-4.405972e-05 
1.097667e-02 
6.808753e-03 
3.118372e-03 
6.770663e-03 
2.713222e-02 
4.284706e-02 
2.191768e-02 
4.047762e-02 
1.609366e-02 
7.641797e-03 
2.832819e-02 
1.667079e-03 
2.289452e-04 
-4.763063e-03 
-1.894403e-03 
5.557199e-03 
7.349433e-03 
5.482357e-03 
-1.347028e-03 
6.890990e-03 
1.038699e-02 
4.550182e-02 
-1.684604e-03 
6.060794e-02 
2.739129e-02 
2.936123e-02 
1.625166e-02 
2.051855e-02 
4.232657e-03 
3.785910e-03 
1.353156e-02 
7.898975e-05 
7.433866e-03 
2.241975e-03 
5.751246e-03 
8.290476e-03 
-5.223567e-03 
4.825620e-03 
1.875136e-02 
3.141587e-02 
1.656542e-02 
2.606322e-02 
9.710668e-03 
1.376950e-03 
1.707767e-02 
-1.731413e-03 
6.863760e-03 
5.417509e-03 
-6.658575e-04 
3.054927e-03 
4.862696e-04 
7.018370e-03 
2.890788e-03 
6.060893e-03 
5.605897e-03 
3.177101e-02 
1.006084e-02 
-4.737837e-01 
3.044843e-02 
3.057169e-02 
1.481928e-02 
1.358843e-02 
8.044686e-03 
3.661241e-03 
1.770232e-02 
2.880803e-03 
1.005577e-02 
1.100203e-02 
7.734985e-03 
4.104752e-03 
1.960080e-03 
5.742296e-03 
9.503919e-03 
2.503592e-02 
3.137410e-02 
2.487628e-02 
2.109311e-02 
8.666721e-03 
1.713911e-02 
1.216312e-02 
7.559185e-03 
8.350290e-03 
8.131318e-03 
2.347654e-03 
7.809711e-03 
8.023576e-03 
7.386091e-03 
2.363416e-03 
8.588420e-03 
3.866906e-02 
9.952035e-03 
-2.505068e-01 
2.158446e-02 
1.605460e-02 
8.877819e-03 
1.700678e-02 
2.476781e-03 
6.998025e-03 
1.414954e-02 
1.207500e-02 
1.983912e-03 
5.150499e-04 
-7.108076e-05 
1.600489e-02 
1.424764e-03 
-2.947528e-03 
7.868647e-03 
4.398532e-02 
1.580746e-02 
1.653550e-02 
4.259108e-03 
-5.099751e-03 
1.170806e-02 
-4.794367e-03 
4.571923e-03 
-5.920105e-03 
1.730387e-02 
-6.647963e-03 
2.158272e-02 
1.528288e-02 
1.781120e-02 
1.773132e-03 
6.808135e-03 
4.199387e-02 
1.567981e-02 
7.132864e-02 
4.075843e-02 
4.120695e-02 
2.346612e-02 
3.573179e-02 
1.192743e-02 
4.052592e-03 
3.050647e-02 
8.514184e-03 
1.912653e-02 
4.218574e-03 
4.916969e-03 
8.334495e-03 
3.223350e-03 
-2.728309e-04 
2.149428e-02 
4.297485e-02 
3.371194e-02 
3.912768e-02 
2.413605e-02 
1.276577e-02 
4.225015e-02 
2.511286e-03 
6.929973e-03 
1.157403e-02 
5.873069e-03 
7.675171e-03 
5.964651e-03 
2.376722e-03 
9.045271e-03 
4.745632e-03 
3.370637e-03 
5.372297e-02 
4.772581e-03 
3.619518e-01 
3.962428e-02 
2.960461e-02 
2.451890e-02 
2.622603e-02 
1.574321e-02 
1.105023e-02 
1.855752e-02 
1.147946e-02 
9.374102e-03 
7.938239e-03 
5.727124e-03 
1.854104e-02 
-1.797752e-03 
1.090402e-03 
8.283618e-03 
3.789911e-02 
3.231753e-02 
3.010074e-02 
1.739465e-02 
8.499112e-03 
1.777992e-02 
1.863603e-03 
6.697478e-03 
2.547193e-03 
1.946788e-02 
-2.183820e-04 
2.015825e-02 
1.125566e-02 
2.528820e-02 
6.049886e-03 
8.226889e-03 
4.626126e-02 
1.774155e-02 
-1.250117e-01 
-9.102306e-02 
-1.627491e-01 
-1.769516e-01 
-1.210702e-01 
-1.837483e-01 
-1.313013e-01 
-1.393878e-01 
-1.756193e-01 
-1.914391e-01 
-1.487687e-01 
-9.585724e-02 
-1.901577e-01 
-2.789677e-01 
-2.736864e-01 
-2.631241e-01 
-2.750088e-01 
-2.056953e-01 
-2.232513e-01 
-2.561238e-01 
-3.369848e-01 
-2.651914e-01 
-1.562378e-01 
-7.844104e-02 
-1.311531e-01 
-1.064693e-01 
-8.151339e-02 
-1.503381e-01 
-1.020456e-01 
-1.306788e-01 
-8.512304e-02 
-1.672161e-01 
-8.642883e-02 
2.024525e-01 
-1.356683e-01 
-2.069203e-01 
-1.566929e-01 
-1.899493e-01 
-2.020851e-01 
-1.628514e-01 
-1.530360e-01 
-1.682931e-01 
-2.486217e-01 
-1.930679e-01 
-5.987024e-01 
-1.215865e-01 
-1.732821e-01 
-1.767206e-01 
-1.174679e-01 
-1.415195e-01 
-1.076563e-01 
-1.585618e-01 
-1.618870e-01 
-1.678208e-01 
-1.712342e-01 
-2.426198e-01 
-7.512103e-02 
-1.525213e-01 
-1.222495e-01 
-1.396055e-01 
-1.324926e-01 
-1.028910e-01 
-1.352314e-01 
-1.406404e-01 
-1.759315e-01 
-1.372210e-01 
-6.001255e-01 
