6.355685e-03 
5.014566e-03 
1.851871e-02 
1.197984e-02 
7.916642e-03 
-4.662146e-03 
9.691796e-03 
3.821526e-03 
1.839010e-02 
2.452226e-02 
1.934517e-03 
-1.336264e-03 
-7.936241e-03 
1.053287e-02 
1.339910e-03 
-2.671386e-03 
1.940398e-02 
6.439444e-03 
1.718397e-02 
2.010361e-02 
2.347454e-02 
2.200083e-02 
1.109705e-02 
1.565998e-02 
-5.158321e-03 
1.862801e-02 
-8.108344e-03 
-1.250217e-02 
-8.536019e-03 
-4.389020e-03 
-2.998909e-03 
2.110522e-02 
-2.778542e-03 
-2.387535e-01 
3.386709e-02 
4.643656e-02 
3.279799e-02 
4.233640e-02 
1.488357e-02 
-6.134576e-03 
7.352807e-03 
-2.309142e-03 
3.208492e-02 
4.384102e-02 
8.151069e-03 
-6.593241e-03 
-5.771225e-03 
2.336915e-02 
6.135074e-03 
4.970031e-03 
4.481629e-02 
1.322888e-02 
5.133874e-02 
4.149108e-02 
4.672938e-02 
4.493611e-02 
2.554835e-02 
3.334563e-02 
4.199101e-03 
2.202816e-02 
-9.892719e-03 
5.904983e-03 
-8.587930e-03 
-4.557959e-03 
-3.978750e-03 
5.534714e-02 
-2.344036e-03 
-5.191471e-02 
2.517559e-02 
2.499522e-02 
2.295338e-02 
2.592585e-02 
1.209277e-02 
-6.729657e-03 
1.006522e-03 
8.710914e-04 
2.617945e-02 
2.857750e-02 
1.139486e-02 
-2.776467e-03 
3.216194e-03 
1.452381e-02 
1.862054e-03 
8.969646e-03 
3.483677e-02 
4.274015e-03 
3.720671e-02 
3.094367e-02 
2.456008e-02 
2.617333e-02 
3.829967e-03 
2.191774e-02 
-6.947919e-03 
1.657189e-02 
-7.419951e-03 
9.539731e-03 
1.521153e-03 
6.601242e-03 
-1.538512e-03 
3.349638e-02 
-3.986020e-03 
7.931896e-02 
2.926784e-02 
3.328460e-02 
3.061916e-02 
2.545022e-02 
4.900725e-03 
-6.536706e-03 
1.011098e-02 
6.129663e-04 
2.823642e-02 
3.460783e-02 
1.133686e-02 
8.115491e-04 
3.666927e-03 
1.549515e-02 
-3.182915e-03 
8.651386e-04 
4.232652e-02 
6.192583e-03 
3.792246e-02 
3.380841e-02 
4.016082e-02 
3.870777e-02 
1.120382e-02 
3.185366e-02 
-1.712724e-03 
1.523517e-02 
-8.888782e-03 
-4.758106e-03 
-4.382994e-03 
-8.918844e-05 
-5.686087e-03 
3.329056e-02 
-6.771624e-03 
-2.446161e-01 
2.951182e-02 
2.871710e-02 
2.821993e-02 
2.909382e-02 
1.074288e-02 
-6.568342e-03 
5.036809e-04 
2.828159e-03 
2.485605e-02 
3.282258e-02 
1.507124e-02 
2.508623e-03 
1.609490e-03 
2.278042e-02 
4.027178e-03 
1.221501e-02 
3.238211e-02 
1.403505e-02 
3.886069e-02 
4.045426e-02 
3.319116e-02 
3.427768e-02 
1.253931e-02 
2.355623e-02 
-5.744904e-03 
2.621663e-02 
-1.205862e-03 
6.031669e-03 
-9.509466e-03 
3.118275e-03 
6.614537e-03 
4.205252e-02 
-8.725676e-03 
5.639216e-02 
2.302050e-02 
2.775609e-02 
2.187218e-02 
2.497818e-02 
9.162909e-03 
-1.747871e-03 
-1.704948e-03 
-5.188570e-03 
2.274788e-02 
2.865073e-02 
8.795360e-03 
2.673525e-03 
-6.418961e-03 
1.792407e-02 
2.909132e-03 
5.645948e-03 
2.501294e-02 
8.184122e-03 
2.608520e-02 
2.798791e-02 
2.439461e-02 
2.441053e-02 
1.830808e-02 
2.715211e-02 
-5.831922e-03 
1.783596e-02 
-8.767745e-03 
3.030680e-03 
-5.946614e-03 
3.461786e-03 
3.006975e-03 
2.957562e-02 
1.752532e-03 
-4.769086e-01 
3.226508e-02 
3.750133e-02 
2.504930e-02 
2.606515e-02 
1.595040e-02 
-4.353135e-03 
1.315462e-03 
-2.884493e-03 
2.747706e-02 
4.255478e-02 
1.121995e-02 
-3.096689e-03 
-1.332357e-04 
2.202688e-02 
-2.556956e-03 
4.252227e-03 
4.444776e-02 
6.025516e-03 
4.764993e-02 
4.105913e-02 
3.291543e-02 
4.296056e-02 
2.143689e-02 
3.417432e-02 
1.832744e-03 
1.852744e-02 
-4.138167e-03 
7.669081e-03 
-4.164718e-03 
-1.212240e-03 
5.012929e-03 
4.902310e-02 
-3.116968e-04 
-2.502843e-01 
2.141106e-02 
1.939936e-02 
1.611631e-02 
2.353945e-02 
7.228445e-03 
-5.277884e-03 
-5.722907e-04 
-3.096750e-03 
2.151297e-02 
2.994148e-02 
4.324743e-03 
1.309878e-03 
-3.121766e-04 
9.563044e-03 
-2.782928e-03 
1.353027e-02 
2.574379e-02 
5.207786e-03 
2.642306e-02 
2.270734e-02 
2.420361e-02 
2.444559e-02 
1.306416e-02 
2.037460e-02 
3.480019e-03 
1.577937e-02 
7.992130e-04 
5.937362e-03 
-2.029278e-03 
-1.018307e-03 
4.016880e-03 
3.363862e-02 
-4.492625e-03 
6.844901e-02 
3.258306e-02 
3.750457e-02 
3.006571e-02 
4.058890e-02 
1.715776e-02 
-2.960198e-03 
7.544214e-03 
2.366183e-03 
4.188840e-02 
4.214748e-02 
1.122057e-02 
1.669605e-03 
1.443798e-03 
1.939801e-02 
-3.842849e-03 
4.135388e-03 
4.419794e-02 
6.163933e-03 
4.993681e-02 
5.168707e-02 
5.093301e-02 
3.915434e-02 
2.303393e-02 
4.260885e-02 
-3.232637e-04 
2.677621e-02 
-5.668057e-03 
-2.377832e-03 
-2.135839e-03 
1.294017e-03 
-8.076845e-05 
5.206554e-02 
-5.396900e-03 
3.569546e-01 
3.765037e-02 
3.131781e-02 
3.328842e-02 
2.987274e-02 
1.546031e-02 
-2.541142e-03 
3.974920e-03 
-5.423324e-03 
2.924530e-02 
4.229025e-02 
1.025865e-02 
2.006829e-03 
-3.688456e-03 
1.764715e-02 
-1.365973e-03 
1.236333e-03 
4.304938e-02 
1.496793e-02 
4.042361e-02 
4.254289e-02 
3.752943e-02 
3.485493e-02 
2.101989e-02 
3.034327e-02 
4.114590e-03 
1.810611e-02 
-2.730944e-03 
-4.314662e-03 
3.309263e-03 
2.711188e-03 
4.888369e-03 
4.393721e-02 
-4.559907e-03 
-1.283466e-01 
2.846776e-02 
-6.395183e-03 
-2.987927e-02 
1.754648e-02 
-2.605901e-02 
-1.449330e-02 
-5.360112e-03 
-2.896953e-02 
-3.808826e-03 
-1.716674e-03 
2.071889e-01 
-1.269834e-01 
-1.940354e-01 
-1.873931e-01 
-1.860435e-01 
-1.831623e-01 
-1.383125e-01 
-1.538840e-01 
-1.696558e-01 
-2.348004e-01 
-1.849977e-01 
7.474174e-03 
-1.325123e-01 
-2.082528e-01 
-1.800507e-01 
-1.474166e-01 
-2.236992e-01 
-1.576008e-01 
-2.017028e-01 
-1.609751e-01 
-2.573235e-01 
-1.609393e-01 
8.221913e-02 
-7.545904e-02 
-1.343435e-01 
-8.284322e-02 
-1.229827e-01 
-1.226154e-01 
-1.045959e-01 
-9.552570e-02 
-9.250548e-02 
-1.583995e-01 
-1.259054e-01 
-4.400582e-01 
-1.691679e-01 
-2.196758e-01 
-2.164970e-01 
-1.547185e-01 
-1.792171e-01 
-1.356287e-01 
-1.993574e-01 
-1.980498e-01 
-2.150411e-01 
-2.104944e-01 
-3.419086e-01 
-9.444226e-02 
-1.736857e-01 
-1.425036e-01 
-1.586905e-01 
-1.526546e-01 
-1.181798e-01 
-1.578705e-01 
-1.584137e-01 
-2.010333e-01 
-1.559707e-01 
-6.329759e-01 
