-2.589158e-01 
8.609799e-02 
2.119322e-02 
-3.414551e-01 
2.900344e-02 
-1.807819e-01 
-6.650208e-01 
-1.444076e-01 
5.368717e-01 
4.427914e-01 
-4.110763e-02 
-1.649538e-01 
3.582215e-02 
3.893790e-01 
-1.229675e+00 
-7.362322e-01 
-6.239002e-01 
-2.521987e-01 
-1.240705e-02 
1.598165e+00 
7.036632e-01 
1.808300e+00 
6.502773e-01 
5.526574e-01 
-1.646045e-01 
4.104896e-01 
-1.863666e-01 
-1.345978e+00 
-4.984839e-01 
-2.957768e-01 
-4.221979e-01 
-2.091499e-01 
-3.347952e-01 
-4.132085e-01 
-2.256067e+00 
-7.671320e-01 
2.600612e-02 
-3.574755e+00 
4.848053e+00 
1.203589e+00 
6.334203e-01 
4.081277e-01 
2.742536e-01 
1.497269e+00 
5.905174e-01 
8.620221e-01 
-2.973069e+00 
-1.517620e+00 
-2.371196e+00 
3.377972e+00 
-1.973667e+00 
1.112669e-01 
2.450385e+00 
2.697911e+00 
-3.380919e-01 
1.852229e+00 
1.762170e-01 
1.354547e+00 
7.743395e-01 
5.665773e+00 
1.164895e+00 
-1.438632e+00 
1.156044e+00 
1.594453e+00 
2.699505e+00 
2.138961e+00 
5.283929e-02 
3.020649e-01 
-2.437535e-01 
1.689323e-02 
5.638858e-02 
-1.007324e-01 
4.340834e-01 
2.304649e-01 
-9.748687e-01 
1.964879e-01 
-9.505634e-01 
-5.663272e-01 
-5.184275e-01 
2.105933e-01 
3.754836e-01 
4.760217e-01 
-4.194405e-01 
8.304879e-01 
1.906251e-01 
-2.450589e-01 
-3.105619e-01 
-7.827165e-01 
-5.914526e-01 
-5.026930e-01 
-1.862335e-01 
-1.958922e-01 
1.860396e-01 
1.922902e-01 
2.328511e-01 
1.263059e+00 
3.165982e-01 
-1.113595e+00 
-1.536174e+00 
-2.507926e-01 
1.270705e-01 
7.452449e-01 
-2.259418e-01 
-1.287490e-02 
-4.043909e-01 
2.458335e-01 
-3.241654e-01 
-3.493572e-01 
-7.539507e-01 
-2.895556e-01 
-1.220094e-01 
-2.106365e-01 
-1.874554e-01 
-2.054133e-01 
-5.377824e-01 
-4.365265e-01 
2.163665e+00 
-8.758679e-01 
1.730060e-01 
4.294074e-01 
-2.043268e-01 
9.181199e-01 
1.955631e+00 
1.023415e+00 
4.228856e-01 
2.509605e-01 
-2.185083e-01 
-6.159054e-02 
-2.571116e-01 
-2.527731e+00 
-5.145872e-01 
-5.894173e-01 
-1.024414e+00 
5.065993e-01 
-2.716062e-02 
-1.429233e-01 
2.169640e-01 
2.625032e-01 
-1.437884e-01 
-6.931707e-02 
-9.792490e-03 
-9.159798e-01 
5.927696e-01 
-7.580396e-01 
1.865869e-01 
6.256575e-02 
5.929736e-02 
-5.494286e-01 
-1.566442e-01 
1.483374e-01 
6.461913e-01 
5.236535e-01 
3.861485e-01 
1.903406e-01 
4.840569e-01 
-2.967954e-01 
1.285705e-01 
-4.672789e-01 
-2.098487e-01 
-2.675122e-01 
-5.357850e-01 
-4.057256e-01 
-6.405621e-01 
1.195641e-01 
-6.682976e-01 
3.466355e-01 
4.448060e-01 
4.044857e-02 
-7.836214e-01 
4.440225e-01 
2.183074e+00 
1.008576e+00 
2.113091e-01 
2.965115e+00 
-4.020827e+00 
9.982608e-01 
9.634207e-01 
1.003166e+00 
2.304908e+00 
2.073473e+00 
9.187265e-01 
8.434440e-01 
1.732694e+00 
1.730493e+00 
-3.397028e+00 
-2.931313e+00 
1.610442e+00 
-1.660350e-01 
-2.168373e+00 
2.105100e+00 
-2.093546e-01 
2.047429e+00 
1.047294e+00 
8.085808e-01 
9.000309e-01 
-3.521267e+00 
8.828083e-01 
1.192416e+00 
9.164054e-01 
4.014255e-01 
6.349217e-01 
-2.212171e+00 
1.161183e+00 
-8.841025e-01 
3.290028e-02 
6.387761e-01 
3.806406e-01 
-5.924994e-01 
8.313454e-01 
-7.977558e-01 
-1.576011e+00 
-6.776786e-01 
-1.810924e-01 
1.832517e-01 
-4.092418e-01 
-5.225035e-01 
5.952008e-01 
1.256643e+00 
-2.556497e+00 
6.960473e-01 
-4.964041e-02 
-1.865870e-01 
1.476664e-01 
6.268761e-01 
-1.067563e+00 
9.264144e-01 
2.960516e-01 
3.756379e-01 
-5.013056e-01 
4.369292e-01 
-5.670837e-01 
1.067081e+00 
-7.115648e-01 
-1.145719e+00 
-1.399758e+00 
-5.654776e-01 
-8.096822e-01 
3.048541e-01 
3.181561e-01 
1.195955e-01 
-3.828332e-01 
1.893002e-01 
-4.073367e-01 
2.730976e-01 
1.019270e+00 
2.488549e-01 
-3.908418e-01 
-3.365411e-01 
1.655881e-01 
1.650972e-01 
4.014099e-01 
4.117858e-03 
1.600397e+00 
-2.601814e-01 
6.042044e-01 
3.975925e-01 
-8.138681e-02 
-1.494532e+00 
-1.902066e-01 
-1.703516e+00 
-2.513080e-01 
-3.260009e-01 
1.778512e-01 
-3.247380e-01 
1.788914e-01 
4.139760e-01 
7.071293e-01 
5.796200e-01 
7.300281e-01 
-2.846510e-01 
4.377512e-01 
3.950419e-01 
-5.554027e-01 
-2.594610e-01 
-5.249885e-01 
-1.397844e-03 
-2.026342e-01 
-2.066361e-02 
-4.573350e-01 
7.214062e-03 
-8.047229e-01 
-1.679427e-01 
-2.160616e-01 
3.422029e-02 
-1.900489e-01 
-6.111064e-01 
2.409725e+00 
-4.339861e-01 
5.128050e-02 
4.891778e-01 
-1.636300e-01 
1.189977e-01 
1.371351e+00 
-8.159579e-02 
3.774283e-01 
-4.633948e-02 
7.987547e-03 
-5.987287e-02 
-1.158955e-02 
-1.681433e+00 
-3.539388e-02 
-4.121605e-01 
-7.695914e-01 
4.595233e-01 
2.686866e-01 
6.257709e-01 
-1.170355e-01 
-6.717857e-02 
-3.228293e-01 
2.933125e-01 
-4.486659e-01 
1.053952e+00 
-6.360673e-01 
8.857876e-01 
-1.489868e-01 
-1.880524e-03 
-9.558011e-02 
5.978337e-01 
-8.816421e-02 
1.447392e-02 
3.026969e-01 
-6.596148e-01 
-3.024763e-01 
2.845785e-01 
-3.705597e-01 
1.107722e+00 
1.301033e+00 
1.538117e+00 
6.013876e-01 
7.263841e-01 
5.732882e-01 
4.165249e-01 
6.803724e-01 
-1.524194e+00 
6.489157e-01 
-4.812127e-01 
-8.840942e-01 
-3.955320e-02 
1.008406e+00 
7.407593e-02 
4.706223e+00 
1.436557e-01 
-2.401530e+00 
1.813201e+00 
-1.530443e+00 
5.402365e-01 
1.387969e+00 
-6.070194e+00 
-7.420380e-01 
1.050565e+00 
-9.049423e-01 
-2.432235e+00 
-1.118530e+01 
1.384075e+00 
-5.273709e+00 
-3.411785e-01 
5.710837e+00 
2.582134e+00 
-2.247280e-01 
-3.790505e+00 
-3.618371e+00 
-8.455968e-01 
-1.565866e+00 
1.110723e+00 
2.531012e+00 
-2.495697e+00 
-6.447454e+00 
1.812624e-01 
-3.604151e+00 
1.367683e-02 
-8.824257e-01 
3.738141e+00 
-9.013014e-01 
-7.107358e-01 
7.025304e+00 
3.608300e-01 
-2.688279e+00 
6.896928e-01 
-9.717316e+00 
3.871381e+00 
-2.785422e+00 
-2.993084e+00 
-5.338756e+00 
-1.310807e+00 
-2.518149e+00 
-4.651251e+00 
-1.752137e+00 
4.685715e+00 
1.373807e+00 
-3.160124e+00 
-4.305828e+00 
1.534851e+00 
4.060264e+00 
-1.631085e+00 
-1.103848e+00 
-1.149890e+00 
2.786661e+00 
-6.911030e+00 
-2.525809e+00 
1.834372e+00 
2.154925e+00 
-3.200391e+00 
1.547379e+00 
-2.790961e+00 
-3.778879e+00 
-2.456473e+00 
