-4.208000e-03 
-6.193000e-03 
3.482000e-03 
2.268000e-03 
4.763000e-03 
8.280000e-04 
6.041000e-03 
3.961000e-03 
-9.991750e-01 
2.648000e-03 
-4.281000e-03 
2.325000e-03 
-6.134000e-03 
1.624000e-03 
1.340000e-03 
-6.045800e-02 
-9.170000e-04 
-1.030000e-04 
4.920000e-04 
-1.320000e-03 
2.072000e-03 
-1.313000e-03 
3.046000e-03 
-2.392000e-03 
-3.357954e-03 
3.104000e-03 
-2.687815e-03 
-5.010000e-03 
-3.063000e-03 
-4.628000e-03 
-3.238000e-03 
8.980000e-04 
9.550000e-04 
-2.460800e-01 
-5.278000e-03 
2.958000e-03 
9.962760e-01 
4.632000e-03 
6.750000e-04 
-2.278000e-03 
2.413000e-03 
-2.259000e-03 
-6.119000e-03 
-3.409265e-05 
-2.557930e-03 
-4.022000e-03 
-4.509000e-03 
-1.164000e-03 
6.135000e-03 
-1.169523e-03 
-4.275000e-03 
4.164000e-03 
-1.373000e-03 
-5.208000e-03 
3.100000e-05 
1.021000e-03 
6.208000e-03 
-5.240000e-03 
5.279000e-03 
-2.825000e-03 
-6.060000e-03 
2.497000e-03 
-4.734000e-03 
-5.027000e-03 
-4.448000e-03 
6.116000e-03 
2.530000e-04 
-7.361600e-02 
-2.706000e-03 
-2.896000e-03 
7.410000e-04 
-7.920000e-04 
-7.000000e-05 
-3.539000e-03 
-3.210000e-03 
8.420000e-04 
2.711762e-03 
4.360000e-04 
3.002000e-03 
-6.500000e-04 
4.286000e-03 
1.705000e-03 
1.862000e-03 
-1.405000e-03 
3.328000e-03 
-3.182000e-03 
1.878000e-03 
-2.463200e-01 
-2.701000e-03 
-2.278000e-03 
-5.326000e-03 
-1.851000e-03 
-6.177000e-03 
-2.957000e-03 
-4.216000e-03 
1.477000e-03 
4.721000e-03 
6.066000e-03 
-2.074000e-03 
-2.829000e-03 
-1.875000e-03 
6.363100e-02 
3.529000e-03 
5.512000e-03 
1.424000e-03 
5.130000e-04 
-3.241000e-03 
-3.552000e-03 
5.594000e-03 
6.100000e-04 
-2.422000e-03 
-2.341000e-03 
2.605000e-03 
2.801000e-03 
4.694000e-03 
-3.070000e-03 
-3.183000e-03 
3.245000e-03 
4.266000e-03 
-3.047000e-03 
9.910000e-04 
-4.408000e-03 
1.976000e-03 
1.648000e-03 
-5.260000e-03 
6.210000e-04 
-7.189297e-04 
-5.654741e-03 
-5.903000e-03 
7.790000e-04 
5.601250e-04 
-3.210000e-04 
-5.918000e-03 
-3.437000e-03 
-4.784000e-03 
-2.595580e-01 
-8.520000e-04 
-4.114000e-03 
9.750000e-04 
3.050000e-04 
-7.280000e-04 
-1.514000e-03 
-4.225000e-03 
-1.269000e-02 
-4.426000e-03 
-1.296000e-03 
5.694000e-03 
5.879000e-03 
3.240000e-03 
5.072000e-03 
4.027000e-03 
5.785000e-03 
-5.811000e-03 
5.994965e-03 
-9.190000e-04 
5.482000e-03 
-1.791000e-03 
-5.150000e-04 
-7.580000e-04 
-6.084000e-03 
1.207210e-01 
4.473000e-03 
3.798000e-03 
2.217000e-03 
-4.467000e-03 
2.544000e-03 
6.040000e-03 
2.345000e-03 
-5.300000e-03 
3.911300e-02 
-7.830000e-04 
2.312000e-03 
-9.060000e-04 
2.598000e-03 
6.840000e-04 
1.461000e-03 
-5.573000e-03 
-5.142000e-03 
-5.880000e-04 
5.960000e-04 
1.949000e-03 
4.813000e-03 
-5.377000e-03 
3.220000e-03 
2.909000e-03 
6.456800e-02 
-6.033000e-03 
1.014000e-03 
-4.504000e-03 
-1.043000e-03 
-4.642000e-03 
4.958290e-01 
5.997000e-03 
3.426000e-03 
-4.937000e-03 
-6.201250e-04 
-5.581000e-03 
2.021000e-03 
-2.741000e-03 
3.057000e-03 
2.602000e-03 
-1.871000e-03 
-5.858400e-02 
-4.903350e-01 
-1.652371e-03 
-6.480000e-04 
-4.532000e-03 
-5.983859e-03 
1.526000e-03 
1.343000e-03 
1.257300e-02 
-2.734000e-03 
-4.187000e-03 
6.100000e-03 
1.973000e-03 
7.020000e-04 
1.697000e-03 
1.723000e-03 
-2.557000e-03 
-4.197000e-03 
4.423000e-03 
-1.602000e-03 
2.924000e-03 
1.991185e-03 
-6.158000e-03 
5.456000e-03 
5.306000e-03 
2.045000e-03 
3.643000e-03 
-3.116000e-03 
1.487000e-03 
2.056000e-03 
1.513000e-03 
-1.585000e-03 
4.640000e-03 
5.662000e-03 
3.565000e-03 
-2.693420e-01 
-3.853000e-03 
-4.998000e-03 
-5.293000e-03 
-3.810000e-04 
-2.264000e-03 
-3.098000e-03 
-4.563000e-03 
-3.174000e-03 
-1.740000e-04 
3.252000e-03 
-3.492000e-03 
2.762000e-03 
4.290000e-04 
-2.230000e-03 
-2.783000e-03 
5.590000e-03 
-4.920000e-03 
-2.424000e-03 
-4.750000e-03 
-2.574000e-03 
-1.082000e-03 
-2.277000e-03 
4.488000e-03 
-1.670000e-03 
3.945000e-03 
-2.593000e-03 
3.015000e-03 
3.750000e-04 
1.670000e-04 
-1.426000e-03 
3.609000e-03 
5.970000e-04 
-3.081000e-03 
5.433500e-02 
-4.700000e-03 
2.695700e-02 
-5.879000e-03 
4.465000e-03 
4.359000e-03 
1.998000e-03 
2.626000e-03 
2.483000e-03 
-4.969410e-01 
-1.815000e-03 
-5.730000e-04 
4.976000e-03 
3.059000e-03 
-4.653000e-03 
6.325000e-05 
3.450000e-04 
-4.653000e-03 
-2.392000e-03 
-2.186000e-03 
5.222000e-03 
4.475000e-03 
-5.064000e-03 
5.143000e-03 
3.424000e-03 
1.160000e-03 
1.860000e-04 
-7.650000e-04 
-3.616000e-03 
2.809000e-03 
8.050000e-04 
-5.700000e-04 
4.191000e-03 
-2.030000e-03 
3.359360e-01 
6.114000e-03 
-1.715000e-03 
2.620000e-03 
-4.640000e-04 
4.821000e-03 
-4.110000e-04 
-6.940000e-04 
-5.479000e-03 
-2.110000e-03 
5.048670e-01 
8.854824e-04 
3.426000e-03 
-2.953000e-03 
-1.424000e-03 
2.486340e-01 
-2.653000e-03 
1.586000e-03 
5.745000e-03 
-1.512000e-03 
4.388000e-03 
-6.140000e-04 
-2.272000e-03 
5.498000e-03 
-1.425093e-03 
4.580000e-03 
-3.773000e-03 
-5.750000e-04 
-5.416000e-03 
5.453000e-03 
2.309000e-03 
4.486000e-03 
2.735000e-03 
-3.170000e-03 
-1.459500e-01 
3.769550e-02 
-4.580000e-04 
-2.324200e-02 
2.127300e-02 
-1.891400e-02 
-1.052200e-02 
-2.516000e-03 
-1.996500e-02 
4.190000e-04 
2.700000e-04 
2.037430e-01 
2.297395e-02 
-4.628100e-02 
-9.226000e-03 
-2.682800e-02 
-2.262000e-03 
-3.601000e-03 
7.970000e-03 
2.547741e-03 
-2.084100e-02 
-1.371600e-02 
3.488960e-01 
3.044844e-02 
-1.121300e-02 
1.582800e-02 
2.813100e-02 
-2.551100e-02 
-9.135000e-03 
-2.566363e-02 
2.849000e-02 
-2.371400e-02 
2.612600e-02 
4.582330e-01 
1.163800e-02 
-2.468900e-02 
2.607300e-02 
-2.667800e-02 
-1.365300e-02 
-2.325900e-02 
6.646000e-03 
1.042200e-02 
-3.004900e-02 
-1.928200e-02 
-2.489470e-01 
-3.652000e-03 
-1.812100e-02 
-1.578600e-02 
2.376500e-02 
2.381000e-02 
1.559800e-02 
-1.764800e-02 
-3.984000e-03 
2.301200e-02 
-1.877200e-02 
3.031000e-02 
2.858600e-02 
-2.358212e-02 
6.777000e-03 
-2.581900e-02 
-2.085281e-03 
-2.126500e-02 
-2.250900e-02 
-1.412400e-02 
-2.389400e-02 
-1.371928e-02 
-3.567420e-01 
