-3.533189e-02 
4.427084e-02 
-4.292988e-02 
-3.407646e-02 
-1.193306e-01 
-2.993934e-02 
2.685848e-04 
1.629957e-02 
2.974202e-02 
-6.458788e-02 
-3.307039e-02 
1.340769e-02 
1.193531e-02 
-4.695372e-02 
3.044540e-01 
5.713844e-02 
-2.685559e-03 
4.376514e-02 
1.911479e-02 
7.410273e-02 
2.940554e-02 
-2.764353e-02 
3.837338e-02 
1.186065e-03 
4.003204e-01 
9.206320e-03 
3.584435e-03 
1.020224e-02 
-1.620607e-02 
-4.675853e-01 
-2.010688e-02 
-3.194826e-02 
2.012508e-02 
-4.350872e-03 
-1.834996e-01 
-2.878830e-02 
-4.314470e-02 
1.003712e-02 
3.900239e-02 
4.376642e-01 
4.319600e-02 
-3.244307e-02 
-4.273781e-02 
-3.946262e-02 
1.612939e-01 
1.357287e-02 
-2.786231e-02 
-1.998065e-02 
1.315129e-02 
3.729651e-02 
2.992712e-02 
2.302898e-02 
1.371220e-02 
-9.012461e-02 
-9.890431e-03 
-6.020983e-02 
-5.295863e-02 
-8.142593e-03 
5.615773e-03 
-5.106360e-02 
-3.809970e-01 
-1.925565e-02 
-7.678085e-02 
-3.589045e-02 
-4.574948e-02 
-2.269816e-02 
-7.428389e-02 
-7.725621e-02 
-2.666293e-02 
-7.151443e-02 
-4.013219e-02 
-2.424566e-01 
-5.173905e-02 
-4.151319e-02 
5.765737e-03 
4.153351e-02 
-7.523349e-02 
1.489651e-02 
-3.934215e-02 
-4.501712e-02 
-6.828306e-02 
-5.393101e-02 
-2.659957e-01 
