2.003659e-01 
5.706915e-01 
-7.848517e-01 
-3.815521e-01 
-5.083983e-04 
-5.302699e-02 
1.806968e-01 
-4.312830e-01 
-1.682239e-01 
-3.323485e-02 
3.700675e-02 
3.289569e-01 
-5.678102e-01 
-3.108307e-01 
3.692753e-01 
-2.285959e-01 
-2.314615e-01 
4.580800e-02 
4.580994e-02 
6.679253e-03 
-8.821849e-02 
7.512617e-02 
-4.178128e-01 
-1.936024e-01 
4.115923e-01 
-1.907591e-01 
-7.049092e-02 
-1.849546e-01 
-8.597501e-02 
-4.973489e-01 
-2.007808e-01 
-7.221355e-02 
-2.210145e-01 
-9.724133e-02 
-2.048048e-01 
-1.272124e-01 
5.598869e-02 
-4.010640e-01 
-1.375426e-01 
4.494179e-01 
2.414967e-01 
4.885831e-01 
-8.356789e-01 
-4.053948e-01 
2.753441e-01 
-9.141498e-02 
4.440710e-02 
-3.827421e-01 
-1.413973e-01 
4.424600e-02 
7.921822e-01 
3.445975e-01 
5.539512e-01 
-2.065973e-01 
3.068158e-01 
4.581215e-02 
7.145339e-02 
2.953745e-01 
7.890390e-01 
2.399427e-01 
-1.243512e+00 
-2.990373e-01 
-2.164710e-01 
-2.504831e-01 
-1.375435e-01 
-2.082831e-01 
-1.561376e-01 
-1.646322e-01 
-1.835307e-01 
-3.644286e-01 
-1.900869e-01 
-3.194783e-01 
-5.510595e-01 
-3.505450e-01 
-4.327128e-01 
-6.748766e-02 
-3.844060e-01 
-1.908751e-01 
-2.459461e-01 
-3.462804e-01 
-6.153599e-01 
-3.445590e-01 
-7.148293e-02 
