7.032309e-01 
-1.880168e+00 
-1.090742e+00 
7.499987e+00 
-1.206320e+00 
1.453860e+00 
2.946787e-01 
-2.017315e+00 
-6.346691e-01 
4.102215e-01 
-1.143698e-01 
3.204173e+00 
-1.042389e+00 
-3.536321e+00 
1.693996e+00 
7.547423e-01 
6.971634e-01 
5.655069e-01 
7.446701e-01 
-3.850225e-02 
-5.178533e+00 
-7.902101e-01 
6.247736e+00 
4.031564e+00 
-1.728287e+00 
-3.808569e-01 
-2.288069e-01 
4.996039e-01 
1.595922e+00 
-1.724472e+00 
-6.265474e-01 
1.753991e+00 
-6.065490e-01 
-1.846541e+00 
4.204832e-01 
-1.970109e-01 
-4.690112e-01 
5.253762e-01 
5.726359e-01 
7.637434e-02 
5.401674e-01 
1.249482e+00 
-1.676391e+00 
-6.300902e+00 
3.209144e+00 
4.573431e-01 
2.550993e-01 
-3.797156e-01 
-1.579432e+00 
-1.556199e-01 
-2.285782e+00 
5.843097e-01 
2.716085e+00 
8.718320e-02 
2.401634e+00 
-6.038858e+00 
-5.497433e-01 
-5.845559e+00 
3.113876e+00 
1.042501e+00 
-7.379569e-01 
1.741620e+00 
5.134198e+00 
5.823820e+00 
1.454376e+00 
-1.646778e+00 
-7.518782e+00 
-1.454848e+01 
-8.523208e-01 
-5.626638e+00 
4.017022e-01 
-5.679751e-01 
-1.778708e+00 
-6.605056e+00 
-5.387774e+00 
-6.016195e+00 
1.532363e+00 
7.375424e+00 
-8.580257e+00 
8.580745e+00 
-1.308687e+00 
-2.857080e-01 
1.621545e-01 
