0.000654 
-0.000329 
-0.001703 
-0.000739 
0.000954 
-0.001688 
-0.001651 
0.001378 
-0.000546 
0.000206 
-0.001938 
0.000703 
0.001598 
-0.001737 
-0.000201 
-0.001690 
0.000191 
0.001800 
-0.001081 
0.001152 
-0.000780 
-0.001931 
-0.001226 
-0.000442 
-0.001660 
0.001614 
0.000253 
0.000621 
-0.000419 
-0.001197 
-0.000211 
-0.000458 
-0.001619 
0.001190 
0.000043 
0.001749 
0.001456 
-0.001714 
-0.001730 
0.001074 
0.001095 
0.000466 
-0.001676 
0.000965 
0.001449 
-0.001091 
0.001294 
-0.001447 
-0.001382 
-0.000216 
0.001312 
-0.000767 
-0.000190 
-0.000197 
0.000805 
0.000053 
0.000638 
-0.001706 
0.000257 
-0.000300 
-0.001721 
0.000210 
-0.000900 
0.000397 
0.000632 
0.000212 
-0.000690 
0.000530 
-0.000651 
-0.001887 
-0.001641 
-0.001463 
-0.000858 
0.000346 
-0.000075 
-0.001452 
-0.001069 
0.000110 
0.001793 
-0.001056 
0.001390 
0.000084 
-0.000056 
-0.000583 
0.000583 
0.000904 
-0.000764 
-0.001211 
-0.000025 
-0.001438 
0.001621 
-0.001846 
0.001443 
-0.001342 
-0.000055 
0.001759 
-0.000828 
0.000921 
0.001369 
0.000285 
0.415913 
0.001838 
0.000595 
0.000597 
0.001671 
0.001590 
0.001503 
-0.001285 
-0.001297 
-0.000219 
0.001819 
0.000752 
0.001564 
-0.001537 
-0.001183 
0.001040 
0.001393 
0.001215 
-0.000855 
-0.001677 
-0.001842 
-0.001706 
0.001463 
-0.000293 
0.001687 
-0.001750 
-0.001807 
-0.000837 
0.000247 
0.001203 
0.001552 
0.000633 
0.001826 
-0.000215 
-0.001630 
0.000444 
0.001426 
-0.000292 
0.000237 
0.001343 
-0.000656 
0.000093 
-0.000188 
-0.001862 
-0.000335 
0.000093 
0.000102 
0.001425 
-0.001828 
-0.001826 
-0.000370 
0.001906 
0.000725 
0.001294 
-0.000289 
0.001645 
0.000160 
0.000332 
0.001748 
-0.001158 
-0.001806 
-0.000954 
0.000706 
-0.000044 
-0.001546 
0.001734 
0.001176 
-0.001874 
0.001405 
-0.001018 
0.000319 
0.000670 
-0.001828 
-0.001042 
0.000701 
0.000627 
0.000552 
0.000635 
0.000073 
-0.001144 
-0.001220 
0.000540 
0.000188 
-0.000680 
0.001344 
-0.000738 
0.001580 
0.000536 
0.001285 
-0.000872 
0.000425 
-0.001439 
-0.000046 
-0.001086 
0.000068 
-0.001590 
-0.000378 
0.001920 
-0.001604 
0.000699 
0.001503 
0.471793 
0.001178 
-0.001496 
-0.001536 
-0.001021 
-0.001187 
-0.000676 
-0.000901 
-0.001388 
0.000851 
-0.000161 
-0.001257 
0.000833 
0.001921 
-0.001050 
-0.000373 
-0.001593 
-0.000956 
0.000318 
-0.001014 
-0.001456 
0.000163 
-0.000273 
-0.000553 
-0.000221 
0.001886 
-0.001061 
0.001550 
-0.001753 
-0.001712 
-0.001374 
0.001074 
-0.001208 
0.001642 
-0.001819 
-0.001268 
-0.001418 
-0.001315 
0.001397 
-0.000907 
-0.001706 
-0.000671 
0.001909 
-0.000222 
0.000131 
-0.000706 
-0.001814 
-0.001508 
-0.001460 
0.001215 
0.001186 
0.000969 
-0.000987 
-0.000965 
0.001872 
-0.001602 
-0.000064 
0.000523 
-0.000564 
0.001485 
0.001372 
0.000376 
-0.000477 
-0.000508 
-0.000997 
0.000287 
0.001935 
-0.001662 
0.000897 
-0.000114 
0.000798 
0.001122 
-0.000193 
-0.000528 
0.001806 
0.000555 
-0.001763 
0.001744 
0.001217 
0.000989 
0.000908 
-0.000341 
-0.001809 
-0.000979 
-0.000169 
0.001002 
0.000201 
0.001466 
0.001065 
0.000299 
-0.000890 
-0.001833 
0.001141 
-0.001081 
0.001040 
-0.000597 
-0.000855 
0.000181 
0.001797 
0.000605 
0.000182 
-0.057615 
-0.000481 
0.000943 
-0.000242 
-0.001899 
0.001829 
-0.000834 
0.001684 
0.001347 
0.000648 
0.001041 
-0.001013 
0.000864 
0.000579 
-0.000225 
0.000260 
0.001023 
0.001497 
0.000771 
0.000488 
-0.000315 
-0.001910 
-0.000264 
0.001479 
0.000967 
0.000227 
-0.001716 
0.001697 
0.000344 
-0.001686 
0.000332 
0.000837 
-0.000931 
0.001707 
-0.001210 
-0.000674 
0.001406 
-0.000240 
0.000877 
-0.000189 
-0.001558 
0.001512 
-0.001249 
0.000797 
0.001083 
-0.000568 
0.000145 
-0.001264 
-0.001513 
-0.000031 
0.000263 
0.000467 
-0.000025 
0.000626 
0.000114 
-0.001857 
-0.000470 
0.001857 
0.000789 
-0.001738 
-0.001291 
0.000917 
-0.001366 
-0.000921 
-0.001853 
0.001054 
0.001006 
-0.000575 
-0.000093 
0.001124 
-0.001682 
0.000994 
-0.001153 
0.000727 
-0.001090 
0.000027 
-0.001170 
0.000523 
0.001366 
-0.001487 
0.000025 
-0.001825 
-0.001357 
-0.001238 
-0.001560 
-0.001795 
0.001890 
-0.000316 
-0.001187 
0.000963 
0.001289 
-0.000902 
0.000390 
-0.000611 
-0.000807 
0.000549 
-0.000224 
-0.001072 
0.000427 
-0.000753 
0.000112 
-0.186245 
-0.001048 
0.000315 
0.001173 
-0.001774 
0.000654 
-0.000629 
-0.000739 
-0.000987 
-0.001328 
0.001338 
-0.000547 
-0.001838 
0.000190 
-0.000015 
-0.000644 
-0.001254 
-0.000223 
-0.000641 
-0.000376 
0.000593 
-0.001223 
0.000894 
0.000061 
-0.001348 
0.000319 
-0.001917 
0.000277 
0.001104 
-0.001125 
-0.000183 
0.000421 
0.000131 
-0.001113 
-0.001665 
0.001045 
0.001427 
-0.001743 
0.001080 
0.000746 
-0.000748 
-0.001159 
0.000541 
0.000630 
-0.000415 
-0.000313 
0.000973 
0.001411 
-0.001761 
0.001431 
0.000477 
0.000624 
0.001449 
-0.001671 
-0.001480 
0.001768 
-0.000298 
0.000077 
-0.001822 
-0.001115 
0.000534 
-0.000012 
0.000030 
-0.001147 
-0.001053 
-0.001543 
-0.000160 
0.001101 
0.000590 
-0.000766 
-0.001352 
-0.001782 
-0.001171 
0.000066 
0.001722 
0.000796 
0.000915 
0.000634 
-0.001200 
-0.001169 
0.001635 
0.000748 
0.000989 
-0.000979 
0.000433 
-0.000237 
0.000602 
-0.001600 
-0.000972 
0.000288 
-0.000702 
0.001311 
-0.000034 
-0.000683 
-0.000111 
-0.001430 
-0.001366 
0.001011 
0.001466 
-0.001823 
-0.001534 
-0.064864 
-0.001658 
0.001851 
-0.001622 
-0.001452 
0.001119 
-0.000551 
0.000337 
0.001282 
-0.000759 
-0.001676 
0.001132 
-0.000890 
0.000885 
-0.000974 
0.000492 
0.000651 
0.000699 
-0.000894 
0.001635 
-0.001519 
0.000277 
0.000773 
-0.001388 
-0.001505 
-0.000490 
-0.000870 
0.001772 
-0.000369 
0.001065 
0.001115 
-0.001759 
-0.001072 
-0.001737 
0.000483 
-0.001383 
0.001368 
0.001519 
0.001368 
-0.001362 
-0.001499 
-0.001044 
-0.000770 
0.000039 
-0.001365 
-0.000135 
-0.000599 
0.001708 
-0.001577 
0.001806 
-0.000968 
-0.000661 
-0.000676 
-0.001254 
0.001725 
0.001608 
-0.000984 
-0.000094 
0.000164 
-0.000608 
-0.001321 
0.001736 
0.000455 
0.001330 
-0.000675 
0.001564 
0.001632 
0.001770 
-0.000127 
-0.000489 
-0.000445 
-0.001935 
-0.001806 
0.001447 
-0.000656 
0.001786 
-0.000304 
0.001244 
-0.000019 
0.000047 
0.000194 
0.000268 
0.001871 
0.000915 
-0.001793 
-0.001142 
0.001835 
-0.001883 
-0.001352 
-0.000567 
0.001045 
0.001026 
-0.001220 
0.001017 
0.000867 
-0.000755 
-0.001337 
0.000329 
0.000085 
0.001867 
0.001551 
-0.109125 
-0.000748 
-0.000477 
0.000554 
0.001484 
-0.000200 
0.001162 
0.000285 
-0.001900 
0.000706 
-0.001830 
-0.001209 
0.001884 
-0.001407 
0.001888 
-0.001132 
0.001583 
-0.001575 
0.000183 
0.000840 
-0.001127 
0.000134 
0.001349 
-0.001630 
0.001321 
0.000664 
0.000829 
0.001526 
-0.000247 
0.000811 
0.000717 
-0.001066 
-0.001715 
0.000291 
0.001222 
-0.001147 
-0.001391 
0.000372 
-0.000717 
0.000676 
-0.001592 
0.001293 
0.001071 
0.000470 
0.000004 
-0.000406 
-0.001225 
-0.000213 
-0.001743 
0.001733 
0.001326 
0.000521 
0.001038 
-0.001594 
-0.001446 
0.001909 
-0.001852 
-0.001380 
-0.001308 
0.000364 
0.001324 
-0.001340 
-0.001492 
-0.000514 
-0.000180 
0.000151 
0.001556 
0.000471 
-0.001797 
0.000292 
0.000774 
0.000136 
0.001492 
0.001578 
0.000456 
-0.000315 
0.001714 
0.000702 
0.000701 
-0.000696 
-0.000103 
0.000411 
-0.001535 
0.001718 
-0.001032 
0.000761 
-0.001678 
-0.000761 
-0.001601 
-0.000394 
0.001164 
-0.000484 
-0.000656 
-0.001929 
-0.000868 
0.001442 
0.001201 
0.001925 
0.000394 
-0.001106 
-0.000725 
-0.354031 
0.000996 
-0.001119 
-0.000861 
0.001388 
-0.000895 
0.001559 
-0.000675 
0.001421 
0.000964 
-0.001069 
0.001870 
0.000829 
-0.001779 
-0.000745 
-0.001476 
-0.001011 
-0.000753 
0.001841 
-0.000623 
-0.000985 
0.001781 
-0.000551 
0.001009 
0.001711 
0.000674 
0.000116 
-0.000053 
0.001744 
-0.000987 
-0.000616 
0.000385 
0.000587 
-0.000603 
0.001844 
-0.000353 
-0.000553 
0.000394 
-0.001242 
-0.001415 
0.001719 
-0.000392 
-0.001709 
0.001746 
0.001657 
0.000607 
-0.001066 
-0.000116 
-0.000046 
-0.001199 
-0.000704 
0.001654 
0.000426 
0.001649 
0.000564 
-0.001152 
0.001128 
0.000184 
-0.000499 
-0.001507 
-0.000331 
0.000873 
0.001532 
-0.000825 
0.000722 
0.001219 
-0.000886 
0.001199 
-0.001906 
0.001364 
0.001688 
-0.000929 
0.000194 
-0.000043 
-0.000405 
0.000150 
-0.001562 
0.001793 
0.000057 
-0.001082 
0.001030 
-0.000709 
-0.001725 
0.000447 
0.001268 
-0.001315 
-0.000463 
0.000392 
-0.000098 
-0.000446 
-0.001430 
0.001536 
-0.001653 
0.001169 
-0.001632 
0.000487 
0.000732 
-0.001323 
0.001070 
0.000613 
-0.000217 
0.192132 
-0.001285 
-0.000168 
-0.000231 
-0.001881 
-0.000311 
0.001046 
0.000681 
-0.000659 
0.000981 
-0.001020 
-0.001924 
-0.001629 
0.001160 
0.000940 
-0.000256 
-0.001640 
-0.000176 
-0.000751 
-0.000936 
0.001037 
-0.001502 
0.001018 
-0.001046 
0.001406 
-0.000572 
0.001039 
-0.001656 
-0.001771 
-0.001056 
0.000293 
0.000876 
-0.000520 
0.001329 
-0.001862 
0.001877 
-0.001320 
0.000848 
0.000269 
0.001505 
0.000496 
-0.001832 
-0.001736 
-0.001177 
-0.001825 
0.001538 
-0.000739 
-0.000313 
0.000050 
-0.001435 
-0.000883 
0.000996 
0.001146 
0.000183 
-0.000175 
0.000009 
0.001590 
0.001411 
-0.000828 
-0.000535 
-0.000830 
-0.000723 
-0.000281 
-0.000800 
-0.001922 
0.000754 
-0.001806 
0.001854 
0.001348 
-0.001079 
0.001118 
0.001721 
-0.001749 
0.000698 
0.000639 
-0.001691 
-0.001228 
0.000633 
-0.001851 
-0.001727 
0.001084 
-0.001310 
-0.001548 
0.001907 
-0.001738 
-0.001689 
-0.001390 
0.001142 
0.000932 
0.000033 
0.000887 
-0.000349 
0.001905 
0.000629 
0.001773 
0.001146 
-0.000445 
0.000699 
0.001853 
0.001364 
-0.001691 
-0.245777 
-0.000175 
-0.001716 
-0.001389 
-0.001672 
-0.001297 
0.000830 
-0.000446 
-0.001907 
0.000374 
0.001297 
-0.001174 
0.000145 
-0.000011 
-0.001008 
-0.001633 
0.001652 
-0.000300 
0.000656 
0.001081 
0.001453 
-0.001050 
-0.001056 
-0.001701 
-0.001018 
-0.001296 
0.000135 
-0.000075 
0.000706 
-0.000961 
-0.001049 
0.000397 
-0.001555 
0.001909 
0.000695 
-0.000356 
-0.001688 
0.001862 
0.000288 
0.001434 
0.000167 
0.001028 
0.000729 
0.001534 
-0.001936 
0.000617 
-0.000466 
0.000329 
-0.001392 
0.000110 
-0.001470 
0.000581 
-0.000177 
0.000820 
-0.001306 
-0.000175 
0.001679 
0.000300 
0.000199 
0.001663 
-0.001478 
-0.000201 
-0.001369 
0.000639 
-0.000507 
0.001560 
-0.000403 
0.000103 
-0.001880 
-0.000821 
0.001772 
0.001458 
0.001334 
-0.000747 
0.000636 
-0.000970 
-0.000569 
-0.001556 
0.000278 
0.001744 
-0.001104 
-0.000876 
-0.001043 
0.001456 
-0.000390 
-0.000621 
0.000388 
0.000469 
-0.001791 
-0.000387 
0.000830 
0.001339 
-0.000414 
-0.001318 
0.001775 
0.000996 
0.001589 
0.000644 
0.000433 
0.000185 
0.000019 
-0.108362 
-0.000951 
-0.003769 
-0.004180 
0.016433 
-0.004442 
-0.013452 
-0.018109 
0.016401 
0.003830 
0.007592 
0.371772 
0.000513 
-0.005597 
0.009796 
-0.007133 
0.016520 
-0.002001 
0.010905 
0.003497 
0.002356 
0.014041 
-0.477412 
0.014213 
-0.016620 
-0.008121 
0.010927 
-0.009674 
0.000020 
0.002845 
-0.008979 
0.014534 
-0.002268 
0.483468 
-0.016003 
-0.009547 
-0.009653 
0.012413 
0.009426 
-0.010083 
0.011708 
0.009442 
0.008280 
-0.016864 
0.131588 
-0.018147 
0.009797 
0.010314 
0.013134 
0.000590 
0.009775 
-0.015966 
-0.009375 
0.008642 
-0.007714 
0.483113 
-0.016395 
-0.011919 
0.002305 
0.011076 
0.016680 
-0.008371 
-0.014534 
0.006542 
-0.013978 
-0.007682 
-0.283010 
-0.014390 
-0.005159 
0.016828 
0.005392 
0.007410 
-0.010203 
-0.017166 
0.018078 
-0.017207 
-0.007625 
-0.487621 
-0.005004 
0.010804 
-0.014542 
-0.005202 
-0.000908 
-0.015847 
0.007831 
0.014379 
0.006887 
-0.003526 
0.065440 
0.006975 
0.017817 
0.017755 
0.005815 
-0.017396 
-0.008384 
-0.016558 
-0.012424 
-0.014815 
-0.005551 
-0.174673 
-0.007681 
-0.001089 
0.013075 
0.001263 
-0.007003 
-0.012615 
-0.015285 
0.009364 
-0.017118 
-0.011556 
-0.245842 
