-0.023298 
-0.002745 
-0.019432 
-0.016956 
-0.010457 
-0.002222 
-0.005603 
-0.005556 
-0.154902 
-0.023805 
-0.020951 
-0.020229 
-0.007419 
0.002393 
-0.010412 
-0.006726 
-0.004166 
-0.283049 
-0.014328 
0.024844 
0.008571 
0.009954 
-0.005022 
-0.012981 
0.005802 
0.008911 
0.388158 
0.023753 
0.019251 
-0.022327 
0.002029 
0.014623 
-0.019557 
-0.021905 
-0.007670 
0.131303 
-0.003335 
-0.000642 
0.000546 
0.013060 
0.008701 
-0.009892 
-0.006916 
-0.015937 
-0.245211 
0.013084 
-0.009128 
-0.010258 
-0.014069 
-0.025157 
-0.018935 
-0.015723 
-0.004710 
0.150727 
0.001376 
0.023512 
0.016937 
0.010523 
0.006598 
0.008231 
0.005342 
0.019755 
-0.364639 
-0.010601 
-0.001479 
0.025670 
0.020679 
-0.022950 
0.000739 
0.013719 
-0.001720 
-0.400838 
-0.002358 
0.024409 
0.006823 
-0.005789 
0.001570 
0.024518 
0.016620 
0.011971 
0.381824 
0.021005 
0.012608 
-0.021486 
-0.022669 
0.011593 
-0.024436 
0.017006 
0.011320 
0.020134 
0.029357 
-0.000691 
0.037958 
0.021614 
0.038709 
-0.011217 
0.028612 
-0.001482 
-0.001164 
0.030098 
-0.135728 
-0.028294 
0.033813 
-0.018821 
0.034730 
-0.030603 
-0.030077 
0.022869 
-0.000547 
-0.029220 
-0.032159 
-0.320809 
-0.002537 
-0.036542 
-0.002398 
0.025472 
-0.010379 
-0.005580 
-0.019883 
-0.019619 
-0.006788 
-0.022647 
-0.457979 
-0.020658 
-0.004920 
0.002644 
-0.033135 
-0.013840 
0.009760 
0.009941 
-0.028945 
0.038091 
0.033514 
-0.414760 
0.000988 
0.016881 
-0.000481 
-0.000186 
-0.023717 
0.013760 
-0.036645 
0.037454 
0.036670 
0.023888 
-0.230009 
